{"ip":0,"fr":60,"v":"5.1.20","assets":[],"layers":[{"ty":4,"nm":"last","ip":0,"st":0,"ind":2,"hix":1,"ks":{"o":{"a":0,"k":100},"or":{"a":0,"k":[0,0,0]},"a":{"a":0,"k":[47,90.5,0]},"p":{"s":true,"x":{"a":0,"k":204.42500560109607},"y":{"a":0,"k":162.0000005376339}},"rx":{"a":0,"k":0},"ry":{"a":0,"k":0},"rz":{"a":0,"k":0},"s":{"a":0,"k":[101.69999999999999,90.2]}},"shapes":[{"ty":"gr","nm":"last shape group","it":[{"ty":"sh","ks":{"a":0,"k":{"c":false,"v":[[208.648,280.476],[207.654,261.234],[207.406,254.555],[211.167,258.004],[220.912,270.174],[265.949,325.684],[289.34,348.52],[297.925,353.352],[295.677,347.595],[286.684,333.025],[259.954,269.855],[258.008,216.747],[262.484,196.822],[263.353,191.554],[261.422,196.567],[265.265,212.709],[266.022,203.497],[270.988,207.694],[271.491,195.203],[275.854,192.309],[279.578,178.539],[284.077,175.863],[284.58,188.248],[270.31,222.104]],"i":[[0,0],[0.4900000000000091,5.039000000000044],[-0.9320000000000164,0.6080000000000041],[-0.3230000000000075,-0.375],[-3.1750000000000114,-4.111999999999966],[-15.948000000000008,-17.625],[-8.435999999999979,-6.882999999999981],[-1.3520000000000323,1.65300000000002],[0.5409999999999968,0.8990000000000009],[2.9289999999999736,4.899000000000001],[4.690999999999974,22.704999999999984],[-2.4999999999999716,17.627999999999986],[-1.825999999999965,6.561000000000007],[0.8779999999999859,0.125],[0.06299999999998818,-0.7690000000000055],[-3.8519999999999754,-2.9240000000000066],[-0.2769999999999868,0.3669999999999902],[-2.011000000000024,0.8100000000000023],[-0.257000000000005,1.9519999999999982],[-1.1219999999999573,1.9699999999999989],[-2.085999999999956,4.138000000000005],[-1.656000000000006,-1.320999999999998],[1.3590000000000373,-3.296999999999997],[4.379000000000019,-11.479000000000013]],"o":[[2.1640000000000157,-4.868999999999971],[-0.08599999999998431,-0.8759999999999764],[0.7649999999999864,-0.4989999999999952],[3.3950000000000102,3.9359999999999786],[14.520999999999987,18.807000000000016],[7.295000000000016,8.061999999999955],[0.8269999999999982,0.6750000000000114],[0.9909999999999854,-1.2090000000000032],[-2.9420000000000073,-4.890000000000043],[-11.817000000000007,-19.769999999999982],[-3.598000000000013,-17.414000000000016],[0.9580000000000268,-6.754000000000019],[0.09800000000001319,-0.35200000000000387],[-1.5439999999999827,-0.2179999999999893],[-0.35000000000002274,4.283999999999992],[2.0720000000000027,1.5720000000000027],[1.3070000000000164,-1.7290000000000134],[2.0810000000000173,-0.8379999999999939],[0.45699999999999363,-3.4799999999999898],[2.3040000000000305,-4.045999999999992],[0.6420000000000528,-1.274000000000001],[3.504000000000019,2.7949999999999875],[-4.673000000000002,11.338999999999999],[0,0]]}}},{"ty":"st","o":{"a":0,"k":100},"c":{"a":0,"k":[0,0,0,1]},"lc":3,"lj":1,"ml":1,"w":{"a":0,"k":2.8},"d":[{"n":"d","v":{"a":0,"k":800},"nm":"0"},{"n":"g","v":{"a":0,"k":800},"nm":"1"},{"n":"o","v":{"a":1,"k":[{"t":0,"s":[800],"e":[800],"i":{"x":[1],"y":[1]},"o":{"x":[0],"y":[0]}},{"t":89,"s":[800],"e":[0],"i":{"x":[0.515],"y":[0.955]},"o":{"x":[0.455],"y":[0.03]}},{"t":166}]},"nm":"2"}]},{"ty":"fl","o":{"a":0,"k":0},"c":{"a":0,"k":[0,0,0,0]},"r":1},{"ty":"tr","o":{"a":0,"k":100},"a":{"a":0,"k":[0,0]},"s":{"a":0,"k":[100,100]},"p":{"a":0,"k":[-205.632,-174.111]},"r":{"a":0,"k":0}}]}],"op":166},{"ty":4,"nm":"first","ip":0,"st":0,"ind":1,"hix":2,"ks":{"o":{"a":0,"k":100},"or":{"a":0,"k":[0,0,0]},"a":{"a":0,"k":[100,167.5,0]},"p":{"s":true,"x":{"a":0,"k":139},"y":{"a":0,"k":200}},"rx":{"a":0,"k":0},"ry":{"a":0,"k":0},"rz":{"a":0,"k":0},"s":{"a":0,"k":[100,100,100]}},"shapes":[{"ty":"gr","nm":"first shape group","it":[{"ty":"sh","ks":{"a":0,"k":{"c":false,"v":[[136.525,233.624],[157.109,261.153],[196.846,310.317],[225.639,354.201],[215.031,408.875],[164.654,373.133],[159.789,356.482],[189.318,209.046],[207.957,181.76],[216.804,172.521],[215.803,176.279],[208.855,187.363],[196.822,220.858],[198.512,232.101],[207.272,225.409],[218.03,195.737],[212.686,184.032],[206.629,183.184],[209,180.87],[212.954,177.26],[220.385,171.937],[232.912,167.579],[236.876,180.82],[230.405,188.688],[227.89,192.803],[233.811,187.308],[249.651,164.732],[252.735,152.526],[250.225,148.29],[253.051,153.159],[261.202,147.257],[266.735,136.371],[269.016,132.116],[281.2,142.283],[283.846,146.818],[279.193,141.688],[277.229,123.312],[281.392,118.406],[281.034,122.89],[274.219,135.49],[290.272,103.375],[285.973,90.342],[283.44,85.579],[282.619,83.484],[289.809,96.476],[300.61,91.521],[333.094,79.084]],"i":[[0,0],[-6.974000000000018,-8.867000000000019],[-13.304000000000002,-16.343999999999994],[-6.100000000000023,-16.38900000000001],[20.537999999999982,-7.904999999999973],[6.77000000000001,17.337000000000046],[1.170000000000016,5.678999999999974],[-25.388000000000005,42.93700000000001],[-6.873999999999995,8.598000000000013],[-3.4140000000000157,1.1890000000000214],[0.12100000000000932,-0.21299999999999386],[2.2430000000000234,-3.7369999999999948],[1.73599999999999,-11.567000000000007],[-3.5740000000000123,-1.1519999999999868],[-1.525999999999982,2.105000000000018],[-0.02199999999999136,10.628000000000014],[4.513999999999982,1.5660000000000025],[-3.1999999999999886,3.201999999999998],[-0.796999999999997,0.7639999999999816],[-1.3619999999999948,1.156000000000006],[-2.633999999999986,1.5509999999999877],[-4.542000000000002,0.2949999999999875],[4.1629999999999825,-5.638000000000005],[2.1380000000000052,-2.626999999999981],[-0.47999999999998977,-0.026999999999986812],[-0.9759999999999991,1.0879999999999939],[-3.6280000000000143,8.296999999999997],[0.025999999999982037,4.205999999999989],[1.649000000000001,-2.1140000000000043],[-2.765999999999991,0.3830000000000098],[-1.9399999999999977,2.4710000000000036],[-1.3410000000000082,3.85299999999998],[-1.396000000000015,0.39699999999999136],[-1.961999999999989,-2.6129999999999995],[0.4300000000000068,-1.0860000000000127],[0.14800000000002456,0.2720000000000198],[-2.467999999999961,5.905000000000015],[-1.891999999999996,0.015999999999991132],[0.2529999999999859,-0.5280000000000058],[-4.0090000000000146,2.2510000000000048],[1.4449999999999932,11.823999999999998],[2.0249999999999773,4.143000000000001],[0.8340000000000032,1.5960000000000036],[-0.06400000000002137,-0.015000000000000568],[-3.5820000000000505,-1.6099999999999994],[-1.6480000000000246,0.6359999999999957],[-10.706000000000017,4.491]],"o":[[5.698999999999984,9.795000000000016],[13.028999999999996,16.567000000000007],[10.909999999999997,13.401999999999987],[5.948999999999984,15.981999999999971],[-22.337999999999994,8.598000000000013],[-2.109999999999985,-5.402999999999963],[-10.212999999999994,-49.584],[5.5989999999999895,-9.469999999999999],[2.0900000000000034,-2.6140000000000043],[1.134999999999991,-0.3949999999999818],[-2.1570000000000107,3.788000000000011],[-6.020999999999987,10.028999999999996],[-0.36299999999999955,2.415999999999997],[3.3300000000000125,1.0740000000000123],[6.1650000000000205,-8.501999999999981],[0.00899999999998613,-4.027999999999992],[-4.147999999999996,-1.4390000000000214],[0.7800000000000011,-0.7820000000000107],[1.2889999999999873,-1.2360000000000184],[2.330999999999989,-1.975999999999999],[3.8780000000000143,-2.285000000000025],[9.344999999999999,-0.6069999999999993],[-2.0130000000000052,2.7249999999999943],[-0.1670000000000016,0.2050000000000125],[1.7690000000000055,0.10200000000000387],[6.008999999999986,-6.694999999999993],[1.6629999999999825,-3.805000000000007],[-0.0030000000000143245,-0.5589999999999975],[-1.766999999999996,2.265000000000015],[3.2900000000000205,-0.45599999999998886],[2.5369999999999777,-3.2309999999999945],[0.3979999999999677,-1.1430000000000007],[4.106999999999971,-1.1660000000000252],[0.5409999999999968,0.7210000000000036],[-0.367999999999995,0.929000000000002],[-2.964999999999975,-5.437999999999988],[0.5740000000000123,-1.3730000000000047],[1.572999999999979,-0.01300000000000523],[-0.033999999999991815,0.06999999999999318],[10.636000000000024,-5.975000000000023],[-0.5629999999999882,-4.611000000000004],[-0.7909999999999968,-1.6200000000000045],[-0.06599999999997408,-0.12599999999999056],[4.194999999999993,1.0100000000000051],[1.617999999999995,0.7279999999999944],[10.822999999999979,-4.177999999999997],[0,0]]}}},{"ty":"st","o":{"a":0,"k":100},"c":{"a":0,"k":[0,0,0,1]},"lc":3,"lj":1,"ml":1,"w":{"a":0,"k":2.8},"d":[{"n":"d","v":{"a":0,"k":1000},"nm":"0"},{"n":"g","v":{"a":0,"k":1000},"nm":"1"},{"n":"o","v":{"a":1,"k":[{"t":0,"s":[1000],"e":[0],"i":{"x":[0.515],"y":[0.955]},"o":{"x":[0.455],"y":[0.03]}},{"t":74}]},"nm":"2"}]},{"ty":"fl","o":{"a":0,"k":0},"c":{"a":0,"k":[0,0,0,0]},"r":1},{"ty":"tr","o":{"a":0,"k":100},"a":{"a":0,"k":[0,0]},"s":{"a":0,"k":[100,100]},"p":{"a":0,"k":[-135.125,-77.684]},"r":{"a":0,"k":0}}]}],"op":166}],"op":166,"w":550,"h":400}